digraph Tree {
node [shape=box, style="filled, rounded", color="black", fontname=helvetica] ;
graph [ranksep=equally, splines=polyline] ;
edge [fontname=helvetica] ;
0 [label="node #0\nG2 <= 9.5\nentropy = 0.75\nsamples = 835\nvalue = [178, 657]\nclass = Pass", fillcolor="#6fb8ec"] ;
1 [label="node #1\nG2 <= 8.5\nentropy = 0.87\nsamples = 230\nvalue = [163, 67]\nclass = Fail", fillcolor="#f0b58a"] ;
0 -> 1 [labeldistance=2.5, labelangle=45, headlabel="True"] ;
2 [label="node #2\nG2 <= 7.5\nentropy = 0.41\nsamples = 132\nvalue = [121, 11]\nclass = Fail", fillcolor="#e78c4b"] ;
1 -> 2 ;
3 [label="node #3\nentropy = 0.0\nsamples = 74\nvalue = [74, 0]\nclass = Fail", fillcolor="#e58139"] ;
2 -> 3 ;
4 [label="node #4\nschoolsup <= 0.5\nentropy = 0.7\nsamples = 58\nvalue = [47, 11]\nclass = Fail", fillcolor="#eb9e67"] ;
2 -> 4 ;
5 [label="node #5\nG1 <= 7.5\nentropy = 0.5\nsamples = 45\nvalue = [40, 5]\nclass = Fail", fillcolor="#e89152"] ;
4 -> 5 ;
6 [label="node #6\nentropy = 0.0\nsamples = 16\nvalue = [16, 0]\nclass = Fail", fillcolor="#e58139"] ;
5 -> 6 ;
7 [label="node #7\nMedu <= 2.5\nentropy = 0.66\nsamples = 29\nvalue = [24, 5]\nclass = Fail", fillcolor="#ea9b62"] ;
5 -> 7 ;
8 [label="node #8\nabsences <= 3.5\nentropy = 0.83\nsamples = 19\nvalue = [14, 5]\nclass = Fail", fillcolor="#eeae80"] ;
7 -> 8 ;
9 [label="node #9\ntraveltime <= 3.5\nentropy = 0.41\nsamples = 12\nvalue = [11, 1]\nclass = Fail", fillcolor="#e78c4b"] ;
8 -> 9 ;
10 [label="node #10\nentropy = 0.0\nsamples = 10\nvalue = [10, 0]\nclass = Fail", fillcolor="#e58139"] ;
9 -> 10 ;
11 [label="node #11\nage <= 2.5\nentropy = 1.0\nsamples = 2\nvalue = [1, 1]\nclass = Fail", fillcolor="#ffffff"] ;
9 -> 11 ;
12 [label="node #12\nentropy = 0.0\nsamples = 1\nvalue = [1, 0]\nclass = Fail", fillcolor="#e58139"] ;
11 -> 12 ;
13 [label="node #13\nentropy = 0.0\nsamples = 1\nvalue = [0, 1]\nclass = Pass", fillcolor="#399de5"] ;
11 -> 13 ;
14 [label="node #14\ngoout <= 3.5\nentropy = 0.99\nsamples = 7\nvalue = [3, 4]\nclass = Pass", fillcolor="#cee6f8"] ;
8 -> 14 ;
15 [label="node #15\nentropy = 0.0\nsamples = 3\nvalue = [0, 3]\nclass = Pass", fillcolor="#399de5"] ;
14 -> 15 ;
16 [label="node #16\nfamrel <= 4.5\nentropy = 0.81\nsamples = 4\nvalue = [3, 1]\nclass = Fail", fillcolor="#eeab7b"] ;
14 -> 16 ;
17 [label="node #17\nentropy = 0.0\nsamples = 3\nvalue = [3, 0]\nclass = Fail", fillcolor="#e58139"] ;
16 -> 17 ;
18 [label="node #18\nentropy = 0.0\nsamples = 1\nvalue = [0, 1]\nclass = Pass", fillcolor="#399de5"] ;
16 -> 18 ;
19 [label="node #19\nentropy = 0.0\nsamples = 10\nvalue = [10, 0]\nclass = Fail", fillcolor="#e58139"] ;
7 -> 19 ;
20 [label="node #20\nFedu <= 2.5\nentropy = 1.0\nsamples = 13\nvalue = [7, 6]\nclass = Fail", fillcolor="#fbede3"] ;
4 -> 20 ;
21 [label="node #21\nstudytime <= 1.5\nentropy = 0.92\nsamples = 9\nvalue = [3, 6]\nclass = Pass", fillcolor="#9ccef2"] ;
20 -> 21 ;
22 [label="node #22\nentropy = 0.0\nsamples = 3\nvalue = [0, 3]\nclass = Pass", fillcolor="#399de5"] ;
21 -> 22 ;
23 [label="node #23\nreason <= 1.5\nentropy = 1.0\nsamples = 6\nvalue = [3, 3]\nclass = Fail", fillcolor="#ffffff"] ;
21 -> 23 ;
24 [label="node #24\nentropy = 0.0\nsamples = 3\nvalue = [3, 0]\nclass = Fail", fillcolor="#e58139"] ;
23 -> 24 ;
25 [label="node #25\nentropy = 0.0\nsamples = 3\nvalue = [0, 3]\nclass = Pass", fillcolor="#399de5"] ;
23 -> 25 ;
26 [label="node #26\nentropy = 0.0\nsamples = 4\nvalue = [4, 0]\nclass = Fail", fillcolor="#e58139"] ;
20 -> 26 ;
27 [label="node #27\nabsences <= 10.5\nentropy = 0.99\nsamples = 98\nvalue = [42, 56]\nclass = Pass", fillcolor="#cee6f8"] ;
1 -> 27 ;
28 [label="node #28\nage <= 0.5\nentropy = 0.94\nsamples = 83\nvalue = [30, 53]\nclass = Pass", fillcolor="#a9d4f4"] ;
27 -> 28 ;
29 [label="node #29\nDalc <= 1.5\nentropy = 0.85\nsamples = 11\nvalue = [8, 3]\nclass = Fail", fillcolor="#efb083"] ;
28 -> 29 ;
30 [label="node #30\nentropy = 0.0\nsamples = 6\nvalue = [6, 0]\nclass = Fail", fillcolor="#e58139"] ;
29 -> 30 ;
31 [label="node #31\nfamrel <= 4.5\nentropy = 0.97\nsamples = 5\nvalue = [2, 3]\nclass = Pass", fillcolor="#bddef6"] ;
29 -> 31 ;
32 [label="node #32\nentropy = 0.0\nsamples = 3\nvalue = [0, 3]\nclass = Pass", fillcolor="#399de5"] ;
31 -> 32 ;
33 [label="node #33\nentropy = 0.0\nsamples = 2\nvalue = [2, 0]\nclass = Fail", fillcolor="#e58139"] ;
31 -> 33 ;
34 [label="node #34\nfreetime <= 4.5\nentropy = 0.89\nsamples = 72\nvalue = [22, 50]\nclass = Pass", fillcolor="#90c8f0"] ;
28 -> 34 ;
35 [label="node #35\nPstatus <= 0.5\nentropy = 0.92\nsamples = 65\nvalue = [22, 43]\nclass = Pass", fillcolor="#9ecff2"] ;
34 -> 35 ;
36 [label="node #36\nentropy = 0.0\nsamples = 6\nvalue = [0, 6]\nclass = Pass", fillcolor="#399de5"] ;
35 -> 36 ;
37 [label="node #37\nDalc <= 2.5\nentropy = 0.95\nsamples = 59\nvalue = [22, 37]\nclass = Pass", fillcolor="#afd7f4"] ;
35 -> 37 ;
38 [label="node #38\nfailures <= 0.5\nentropy = 0.99\nsamples = 45\nvalue = [20, 25]\nclass = Pass", fillcolor="#d7ebfa"] ;
37 -> 38 ;
39 [label="node #39\nFedu <= 2.5\nentropy = 0.9\nsamples = 32\nvalue = [10, 22]\nclass = Pass", fillcolor="#93caf1"] ;
38 -> 39 ;
40 [label="node #40\nMjob <= 3.5\nentropy = 0.74\nsamples = 24\nvalue = [5, 19]\nclass = Pass", fillcolor="#6db7ec"] ;
39 -> 40 ;
41 [label="node #41\naddress <= 0.5\nentropy = 0.67\nsamples = 23\nvalue = [4, 19]\nclass = Pass", fillcolor="#63b2ea"] ;
40 -> 41 ;
42 [label="node #42\nstudytime <= 1.5\nentropy = 0.95\nsamples = 8\nvalue = [3, 5]\nclass = Pass", fillcolor="#b0d8f5"] ;
41 -> 42 ;
43 [label="node #43\nentropy = 0.0\nsamples = 2\nvalue = [2, 0]\nclass = Fail", fillcolor="#e58139"] ;
42 -> 43 ;
44 [label="node #44\nactivities <= 0.5\nentropy = 0.65\nsamples = 6\nvalue = [1, 5]\nclass = Pass", fillcolor="#61b1ea"] ;
42 -> 44 ;
45 [label="node #45\nentropy = 0.0\nsamples = 5\nvalue = [0, 5]\nclass = Pass", fillcolor="#399de5"] ;
44 -> 45 ;
46 [label="node #46\nentropy = 0.0\nsamples = 1\nvalue = [1, 0]\nclass = Fail", fillcolor="#e58139"] ;
44 -> 46 ;
47 [label="node #47\nfamsize <= 0.5\nentropy = 0.35\nsamples = 15\nvalue = [1, 14]\nclass = Pass", fillcolor="#47a4e7"] ;
41 -> 47 ;
48 [label="node #48\nentropy = 0.0\nsamples = 12\nvalue = [0, 12]\nclass = Pass", fillcolor="#399de5"] ;
47 -> 48 ;
49 [label="node #49\nFedu <= 1.5\nentropy = 0.92\nsamples = 3\nvalue = [1, 2]\nclass = Pass", fillcolor="#9ccef2"] ;
47 -> 49 ;
50 [label="node #50\nentropy = 0.0\nsamples = 1\nvalue = [1, 0]\nclass = Fail", fillcolor="#e58139"] ;
49 -> 50 ;
51 [label="node #51\nentropy = 0.0\nsamples = 2\nvalue = [0, 2]\nclass = Pass", fillcolor="#399de5"] ;
49 -> 51 ;
52 [label="node #52\nentropy = 0.0\nsamples = 1\nvalue = [1, 0]\nclass = Fail", fillcolor="#e58139"] ;
40 -> 52 ;
53 [label="node #53\nfreetime <= 3.5\nentropy = 0.95\nsamples = 8\nvalue = [5, 3]\nclass = Fail", fillcolor="#f5cdb0"] ;
39 -> 53 ;
54 [label="node #54\nentropy = 0.0\nsamples = 4\nvalue = [4, 0]\nclass = Fail", fillcolor="#e58139"] ;
53 -> 54 ;
55 [label="node #55\npaid <= 0.5\nentropy = 0.81\nsamples = 4\nvalue = [1, 3]\nclass = Pass", fillcolor="#7bbeee"] ;
53 -> 55 ;
56 [label="node #56\nentropy = 0.0\nsamples = 3\nvalue = [0, 3]\nclass = Pass", fillcolor="#399de5"] ;
55 -> 56 ;
57 [label="node #57\nentropy = 0.0\nsamples = 1\nvalue = [1, 0]\nclass = Fail", fillcolor="#e58139"] ;
55 -> 57 ;
58 [label="node #58\nsex <= 0.5\nentropy = 0.78\nsamples = 13\nvalue = [10, 3]\nclass = Fail", fillcolor="#eda774"] ;
38 -> 58 ;
59 [label="node #59\ninternet <= 0.5\nentropy = 1.0\nsamples = 6\nvalue = [3, 3]\nclass = Fail", fillcolor="#ffffff"] ;
58 -> 59 ;
60 [label="node #60\nentropy = 0.0\nsamples = 2\nvalue = [2, 0]\nclass = Fail", fillcolor="#e58139"] ;
59 -> 60 ;
61 [label="node #61\nMjob <= 2.5\nentropy = 0.81\nsamples = 4\nvalue = [1, 3]\nclass = Pass", fillcolor="#7bbeee"] ;
59 -> 61 ;
62 [label="node #62\nentropy = 0.0\nsamples = 3\nvalue = [0, 3]\nclass = Pass", fillcolor="#399de5"] ;
61 -> 62 ;
63 [label="node #63\nentropy = 0.0\nsamples = 1\nvalue = [1, 0]\nclass = Fail", fillcolor="#e58139"] ;
61 -> 63 ;
64 [label="node #64\nentropy = 0.0\nsamples = 7\nvalue = [7, 0]\nclass = Fail", fillcolor="#e58139"] ;
58 -> 64 ;
65 [label="node #65\nreason <= 0.5\nentropy = 0.59\nsamples = 14\nvalue = [2, 12]\nclass = Pass", fillcolor="#5aade9"] ;
37 -> 65 ;
66 [label="node #66\nsex <= 0.5\nentropy = 1.0\nsamples = 4\nvalue = [2, 2]\nclass = Fail", fillcolor="#ffffff"] ;
65 -> 66 ;
67 [label="node #67\nentropy = 0.0\nsamples = 2\nvalue = [0, 2]\nclass = Pass", fillcolor="#399de5"] ;
66 -> 67 ;
68 [label="node #68\nentropy = 0.0\nsamples = 2\nvalue = [2, 0]\nclass = Fail", fillcolor="#e58139"] ;
66 -> 68 ;
69 [label="node #69\nentropy = 0.0\nsamples = 10\nvalue = [0, 10]\nclass = Pass", fillcolor="#399de5"] ;
65 -> 69 ;
70 [label="node #70\nentropy = 0.0\nsamples = 7\nvalue = [0, 7]\nclass = Pass", fillcolor="#399de5"] ;
34 -> 70 ;
71 [label="node #71\nhigher <= 0.5\nentropy = 0.72\nsamples = 15\nvalue = [12, 3]\nclass = Fail", fillcolor="#eca06a"] ;
27 -> 71 ;
72 [label="node #72\nentropy = 0.0\nsamples = 2\nvalue = [0, 2]\nclass = Pass", fillcolor="#399de5"] ;
71 -> 72 ;
73 [label="node #73\nfamsup <= 0.5\nentropy = 0.39\nsamples = 13\nvalue = [12, 1]\nclass = Fail", fillcolor="#e78c49"] ;
71 -> 73 ;
74 [label="node #74\ngoout <= 4.5\nentropy = 1.0\nsamples = 2\nvalue = [1, 1]\nclass = Fail", fillcolor="#ffffff"] ;
73 -> 74 ;
75 [label="node #75\nentropy = 0.0\nsamples = 1\nvalue = [1, 0]\nclass = Fail", fillcolor="#e58139"] ;
74 -> 75 ;
76 [label="node #76\nentropy = 0.0\nsamples = 1\nvalue = [0, 1]\nclass = Pass", fillcolor="#399de5"] ;
74 -> 76 ;
77 [label="node #77\nentropy = 0.0\nsamples = 11\nvalue = [11, 0]\nclass = Fail", fillcolor="#e58139"] ;
73 -> 77 ;
78 [label="node #78\nG1 <= 10.5\nentropy = 0.17\nsamples = 605\nvalue = [15, 590]\nclass = Pass", fillcolor="#3e9fe6"] ;
0 -> 78 [labeldistance=2.5, labelangle=-45, headlabel="False"] ;
79 [label="node #79\nMjob <= 2.5\nentropy = 0.48\nsamples = 136\nvalue = [14, 122]\nclass = Pass", fillcolor="#50a8e8"] ;
78 -> 79 ;
80 [label="node #80\nG2 <= 10.5\nentropy = 0.57\nsamples = 103\nvalue = [14, 89]\nclass = Pass", fillcolor="#58ace9"] ;
79 -> 80 ;
81 [label="node #81\nabsences <= 0.5\nentropy = 0.71\nsamples = 62\nvalue = [12, 50]\nclass = Pass", fillcolor="#69b5eb"] ;
80 -> 81 ;
82 [label="node #82\nWalc <= 2.5\nentropy = 0.95\nsamples = 19\nvalue = [7, 12]\nclass = Pass", fillcolor="#acd6f4"] ;
81 -> 82 ;
83 [label="node #83\npaid <= 0.5\nentropy = 0.65\nsamples = 12\nvalue = [2, 10]\nclass = Pass", fillcolor="#61b1ea"] ;
82 -> 83 ;
84 [label="node #84\nMedu <= 3.5\nentropy = 0.44\nsamples = 11\nvalue = [1, 10]\nclass = Pass", fillcolor="#4da7e8"] ;
83 -> 84 ;
85 [label="node #85\nentropy = 0.0\nsamples = 10\nvalue = [0, 10]\nclass = Pass", fillcolor="#399de5"] ;
84 -> 85 ;
86 [label="node #86\nentropy = 0.0\nsamples = 1\nvalue = [1, 0]\nclass = Fail", fillcolor="#e58139"] ;
84 -> 86 ;
87 [label="node #87\nentropy = 0.0\nsamples = 1\nvalue = [1, 0]\nclass = Fail", fillcolor="#e58139"] ;
83 -> 87 ;
88 [label="node #88\nfamsup <= 0.5\nentropy = 0.86\nsamples = 7\nvalue = [5, 2]\nclass = Fail", fillcolor="#efb388"] ;
82 -> 88 ;
89 [label="node #89\nFedu <= 2.5\nentropy = 0.92\nsamples = 3\nvalue = [1, 2]\nclass = Pass", fillcolor="#9ccef2"] ;
88 -> 89 ;
90 [label="node #90\nentropy = 0.0\nsamples = 2\nvalue = [0, 2]\nclass = Pass", fillcolor="#399de5"] ;
89 -> 90 ;
91 [label="node #91\nentropy = 0.0\nsamples = 1\nvalue = [1, 0]\nclass = Fail", fillcolor="#e58139"] ;
89 -> 91 ;
92 [label="node #92\nentropy = 0.0\nsamples = 4\nvalue = [4, 0]\nclass = Fail", fillcolor="#e58139"] ;
88 -> 92 ;
93 [label="node #93\nactivities <= 0.5\nentropy = 0.52\nsamples = 43\nvalue = [5, 38]\nclass = Pass", fillcolor="#53aae8"] ;
81 -> 93 ;
94 [label="node #94\nentropy = 0.0\nsamples = 22\nvalue = [0, 22]\nclass = Pass", fillcolor="#399de5"] ;
93 -> 94 ;
95 [label="node #95\nMjob <= 1.5\nentropy = 0.79\nsamples = 21\nvalue = [5, 16]\nclass = Pass", fillcolor="#77bced"] ;
93 -> 95 ;
96 [label="node #96\nentropy = 0.0\nsamples = 10\nvalue = [0, 10]\nclass = Pass", fillcolor="#399de5"] ;
95 -> 96 ;
97 [label="node #97\nfamsup <= 0.5\nentropy = 0.99\nsamples = 11\nvalue = [5, 6]\nclass = Pass", fillcolor="#deeffb"] ;
95 -> 97 ;
98 [label="node #98\nentropy = 0.0\nsamples = 3\nvalue = [3, 0]\nclass = Fail", fillcolor="#e58139"] ;
97 -> 98 ;
99 [label="node #99\nWalc <= 1.5\nentropy = 0.81\nsamples = 8\nvalue = [2, 6]\nclass = Pass", fillcolor="#7bbeee"] ;
97 -> 99 ;
100 [label="node #100\nhealth <= 3.5\nentropy = 0.92\nsamples = 3\nvalue = [2, 1]\nclass = Fail", fillcolor="#f2c09c"] ;
99 -> 100 ;
101 [label="node #101\nentropy = 0.0\nsamples = 1\nvalue = [0, 1]\nclass = Pass", fillcolor="#399de5"] ;
100 -> 101 ;
102 [label="node #102\nentropy = 0.0\nsamples = 2\nvalue = [2, 0]\nclass = Fail", fillcolor="#e58139"] ;
100 -> 102 ;
103 [label="node #103\nentropy = 0.0\nsamples = 5\nvalue = [0, 5]\nclass = Pass", fillcolor="#399de5"] ;
99 -> 103 ;
104 [label="node #104\nfailures <= 2.5\nentropy = 0.28\nsamples = 41\nvalue = [2, 39]\nclass = Pass", fillcolor="#43a2e6"] ;
80 -> 104 ;
105 [label="node #105\nreason <= 2.5\nentropy = 0.17\nsamples = 40\nvalue = [1, 39]\nclass = Pass", fillcolor="#3ea0e6"] ;
104 -> 105 ;
106 [label="node #106\nentropy = 0.0\nsamples = 34\nvalue = [0, 34]\nclass = Pass", fillcolor="#399de5"] ;
105 -> 106 ;
107 [label="node #107\ngoout <= 4.5\nentropy = 0.65\nsamples = 6\nvalue = [1, 5]\nclass = Pass", fillcolor="#61b1ea"] ;
105 -> 107 ;
108 [label="node #108\nentropy = 0.0\nsamples = 4\nvalue = [0, 4]\nclass = Pass", fillcolor="#399de5"] ;
107 -> 108 ;
109 [label="node #109\nhealth <= 3.5\nentropy = 1.0\nsamples = 2\nvalue = [1, 1]\nclass = Fail", fillcolor="#ffffff"] ;
107 -> 109 ;
110 [label="node #110\nentropy = 0.0\nsamples = 1\nvalue = [0, 1]\nclass = Pass", fillcolor="#399de5"] ;
109 -> 110 ;
111 [label="node #111\nentropy = 0.0\nsamples = 1\nvalue = [1, 0]\nclass = Fail", fillcolor="#e58139"] ;
109 -> 111 ;
112 [label="node #112\nentropy = 0.0\nsamples = 1\nvalue = [1, 0]\nclass = Fail", fillcolor="#e58139"] ;
104 -> 112 ;
113 [label="node #113\nentropy = 0.0\nsamples = 33\nvalue = [0, 33]\nclass = Pass", fillcolor="#399de5"] ;
79 -> 113 ;
114 [label="node #114\nfamrel <= 1.5\nentropy = 0.02\nsamples = 469\nvalue = [1, 468]\nclass = Pass", fillcolor="#399de5"] ;
78 -> 114 ;
115 [label="node #115\nFedu <= 1.5\nentropy = 0.5\nsamples = 9\nvalue = [1, 8]\nclass = Pass", fillcolor="#52a9e8"] ;
114 -> 115 ;
116 [label="node #116\nentropy = 0.0\nsamples = 1\nvalue = [1, 0]\nclass = Fail", fillcolor="#e58139"] ;
115 -> 116 ;
117 [label="node #117\nentropy = 0.0\nsamples = 8\nvalue = [0, 8]\nclass = Pass", fillcolor="#399de5"] ;
115 -> 117 ;
118 [label="node #118\nentropy = 0.0\nsamples = 460\nvalue = [0, 460]\nclass = Pass", fillcolor="#399de5"] ;
114 -> 118 ;
{rank=same ; 0} ;
{rank=same ; 1; 78} ;
{rank=same ; 41; 55; 61} ;
{rank=same ; 42; 47} ;
{rank=same ; 44; 49} ;
{rank=same ; 2; 27; 79; 114} ;
{rank=same ; 4; 28; 71; 80; 115} ;
{rank=same ; 5; 20; 29; 34; 73; 81; 104} ;
{rank=same ; 7; 21; 31; 35; 74; 82; 93; 105} ;
{rank=same ; 8; 23; 37; 83; 88; 95; 107} ;
{rank=same ; 9; 14; 38; 65; 84; 89; 97; 109} ;
{rank=same ; 11; 16; 39; 58; 66; 99} ;
{rank=same ; 40; 53; 59; 100} ;
{rank=same ; 3; 6; 10; 12; 13; 15; 17; 18; 19; 22; 24; 25; 26; 30; 32; 33; 36; 43; 45; 46; 48; 50; 51; 52; 54; 56; 57; 60; 62; 63; 64; 67; 68; 69; 70; 72; 75; 76; 77; 85; 86; 87; 90; 91; 92; 94; 96; 98; 101; 102; 103; 106; 108; 110; 111; 112; 113; 116; 117; 118} ;
}